{"sizes": [4, 20, 7, 3], "weights": [[[-0.6362742926554417, -0.09787648934793929, 0.1728691113380056, -0.5139485309907628], [-0.10740351497805103, 0.5934078075218447, 0.07079056748015818, 0.5091725247932921], [-0.540709519732902, -0.12590084315511238, -0.5920385343709998, 0.1311224699217847], [-0.009778027059549253, 0.6687041724092573, -0.8054429709762135, 0.5400038862185518], [0.1514984316968527, 0.05373956673065823, -0.021978116410839462, -0.3432015261184156], [0.6386799515979279, 0.25907379918734513, -0.43323597957220034, -0.5234221726451949], [-0.49914873466289417, -0.29994831567929275, 0.28540137740890525, 0.4170881709104664], [-0.03917347100483956, 1.057126272305079, 0.006380958368282444, -0.6961602901438357], [-0.34824214203697745, 0.3450302283633915, 0.16273430170102973, -0.5691658578752401], [0.6741767275822723, 0.048287678520079876, 0.5091553190741864, 0.7619042350523074], [-0.041667309897288986, 0.08384894888430616, 0.14937579354722244, -0.30787256632477056], [0.08275755821704325, 0.08751900795395834, 0.2302653822831661, -0.18218730411157652], [0.5094258736797449, 0.4977077708602575, 0.29728744072503377, 0.05424729297653006], [0.09627155680684456, -0.46246748928364195, -0.09387605040886464, 0.23932691960185568], [0.6548305567705417, 0.07364747122518708, 0.041507338198027224, -0.22014489646206956], [-0.2595441519399802, -0.30938324872157463, -0.17738324861793558, -0.1775879391945009], [-0.20192241675582975, 0.028237998213116268, 0.4447698347595627, -0.08523970003133656], [0.07182158368843328, 0.5603286984742373, 0.011702094664118392, -0.1829980981535923], [-1.0653268069782988, 0.0936664081847606, 0.8653877364165038, -0.016932814037118094], [-0.25633429232643523, -0.04265071305341286, 0.3041805879237665, -0.3441161401341318]], [[0.3166575477790033, -0.04992627827101974, -0.08306640441686226, -0.1410549000652743, -0.01589076927714285, -0.12668238758263442, 0.005734649597590482, 0.1667596665026775, -0.008380023198640766, 0.39401272506544954, -0.059778918597298614, -0.3062278073666803, 0.18835040559387844, 0.09930058561501845, 0.08066467477435939, -0.025056313508789747, 0.19922281208977727, 0.03553155237376225, 0.2774355960269062, -0.10557757075979433], [-0.06678747130389183, 0.2102483209913395, -0.2936763636496081, -0.15344250792540015, -0.19236578657188902, 0.19082864669570715, 0.3526293555309546, 0.005768852500770885, -0.3761154189498222, 0.19449824269768448, 0.10810891148532152, -0.26570395702643596, 0.321520312454554, 0.4653945667952679, 0.049993788827670686, 0.046864771812077745, 0.20113944082566465, 0.2793537850705006, 0.04348760314842125, 0.48674324659993956], [0.14636574753354237, -0.004668867932827905, -0.018512319771485524, -0.24676152839321902, -0.038488959044845054, 0.4054431469060561, 0.11055233428071667, -0.40108691821930353, 0.4897667113061084, -0.2643301363152215, 0.21228989359556277, -0.12460473750242047, -0.10709590469686525, 0.10386322111938248, 0.01753456351775018, -0.1984816041867442, -0.18675082116447883, 0.19362607803580156, -0.0729595438424927, -0.18282199938081797], [0.018210644652551164, 0.5352259839249803, -0.3519245935022814, -0.13825342655274206, -0.07456429547735935, 0.07778526953074102, -0.3157851577219923, 0.13165723462688264, -0.14563595309883254, 0.08829426341801776, -0.050467204263214334, -0.323243237244037, 0.04234294008514998, 0.26169048041944654, -0.0336937860290044, 0.15240385506910326, -0.0811052705217527, 0.1859107114657333, 0.2844091216927066, 0.03031667711116973], [-0.12444886236774988, -0.004690553300667053, -0.2598530738137902, -0.15608991194006383, -0.019962646816951844, -0.2272477763605168, 0.10380655663900752, 0.08578836980456234, -0.2505616242379242, 0.2592452402364712, 0.08609601990397708, -0.009929329839877304, -0.1227940743955067, -0.24433196453553654, -0.0899083422073653, -0.17340531439092277, 0.007805473668991019, -0.15243199791032033, 0.017448614574877133, -0.09591369109012249], [0.08212779679249832, -0.09642858843227015, -0.11372948153431085, -0.10521209871928393, -0.09579264684672432, 0.12848968207158093, 0.051927196982408205, -0.2725083254222876, -0.03983337202520307, -0.18578153850916362, -0.1524417163733534, 0.2273557786760224, -0.48859616206275386, -0.016325592952142646, -0.20063681824992466, 0.0747072065314618, -0.32685439405976174, 0.15162316237778517, -0.05542898730887358, 0.07745761682734478], [-0.08317140563837275, -0.04512555199105714, -0.07138339078294954, 0.16148625597847605, -0.26640094297188466, -0.2316718009097926, -0.011447070466633132, -0.45317745799677184, -0.6620288057565736, 0.07228767893129369, 0.021890060171263694, 0.20848306293174282, 0.16275298328253682, 0.07571215709824873, 0.18954509469686318, -0.11775287290717273, -0.14711629326132386, 0.221282200546863, 0.16470999082144694, 0.1849536733705358]], [[0.9718080688038987, -0.06945185554948517, 0.006151188911606476, 0.08772525472314373, 0.46705504496226885, 0.3907430603978334, 0.007535977182129263], [0.12348122121709386, -0.08565892521918923, -0.16230371492204967, 0.21075715989680335, 0.1902139431348412, 0.7413084670318989, -0.025541623221012413], [0.8200230966224081, -0.17527942649625108, 0.28410917345249936, 0.1130387968198141, 0.7995259308168426, 0.06158739519890048, 0.00976093901451149]]], "biases": [[[-0.6615972714136021], [-0.20097503465946417], [-0.928886055682568], [0.7730384093263277], [-0.6916923606145212], [-0.26752727190670345], [-0.4493572786191487], [-0.3479024395927269], [0.031822186124036], [1.1335123131441065], [1.744125979687898], [0.2413481856067335], [1.277113689093923], [1.057475661919444], [1.3243641920323639], [-0.10250067696175541], [0.9916333658527], [-0.47370072493998905], [0.5012823779971892], [-0.7932117284666927]], [[-1.3926752349583427], [-0.1455246291776159], [-2.0426239783612354], [0.11537581487483743], [-0.36095973337788456], [-1.1621142608073092], [-0.9528203233022523]], [[-0.7930415257733733], [-0.6695844518487586], [-0.6117578753409921]]]}